MTP
version = 1.1.0
potential_name = MTP1m
scaling = 6.365740740740744e-01
species_count = 2
potential_tag = 
radial_basis_type = RBChebyshev
	min_dist = 2.000000000000000e+00
	max_dist = 5.000000000000000e+00
	radial_basis_size = 8
	radial_funcs_count = 3
	radial_coeffs
		0-0
			{5.882436702768562e-02, 9.843164151697266e-02, 5.372554377127357e-02, 3.491676842080228e-02, 2.152155722408257e-02, 9.489903770953958e-03, 3.428515057088524e-03, 3.922209409467668e-04}
			{-3.208870145704146e-01, -4.333992647139527e-01, -2.667041554298152e-01, -1.583066395797594e-01, -9.426573284050888e-02, -4.346284275673267e-02, -1.462436093223868e-02, -1.497151330227750e-03}
			{2.202030917439538e-01, 4.395731135703865e-01, 1.943658088836406e-01, 1.414968257451731e-01, 7.235390351513979e-02, 3.453998922891141e-02, 1.110235495197318e-02, 2.422483123588222e-04}
		0-1
			{-4.443414627710206e-02, -3.881805129420136e-02, -4.436521363493767e-02, -2.088749190910911e-02, -6.600468398181169e-03, -3.749509206970100e-03, -2.670999813929137e-03, -9.653751845123802e-04}
			{2.941209214661386e-01, 3.211177417177550e-01, 2.503022899059788e-01, 1.618621555947705e-01, 6.620777111052292e-02, 2.787616322183213e-02, 1.429064783721513e-02, 4.826595692173016e-03}
			{2.405893275379038e-01, -1.014488324903696e-01, 4.386051852856283e-02, 5.434489719990885e-02, -2.717593039077206e-02, 1.831432147708812e-03, -3.522428697712814e-03, 5.060889857439445e-04}
		1-0
			{-6.312938416772308e-02, -2.327561629722555e-02, -2.768830542958101e-02, -2.571681479242003e-02, -1.092517143307182e-02, -3.858078318832892e-03, -1.613063974649555e-03, -4.607747631910667e-04}
			{1.733541869899235e-01, 1.192908177332697e-01, 1.017352771892144e-01, 7.212836943966726e-02, 4.165187471854447e-02, 1.680725964232170e-02, 5.500679662896464e-03, 1.416030217786340e-03}
			{1.057053131086504e-01, -1.202465204157144e-01, -4.198499967591539e-02, 2.197838234667839e-02, 2.805586311428793e-02, 1.859240308125184e-02, 4.125298864577011e-03, 5.129332754941546e-04}
		1-1
			{3.403049863821851e-01, -6.580778154680280e-01, 4.006100123939771e-01, -4.393970705983913e-01, 1.952107404236406e-01, -1.647000313379000e-01, 4.322142030544829e-02, -2.455692139417559e-02}
			{-8.846411452163966e-02, -4.333314423928329e-01, -5.542198812070624e-02, 6.859045254898034e-02, -1.658753012728639e-01, 1.415196424495584e-01, -6.647327423974903e-02, 3.045296758804002e-02}
			{-5.621247687703019e-01, -3.543687443675065e-01, 9.611936914358420e-02, 1.209247474305496e-01, -1.838417035152692e-01, 2.746326815304651e-01, -1.096357141309572e-01, 6.660106687326169e-02}
alpha_moments_count = 41
alpha_index_basic_count = 25
alpha_index_basic = {{0, 0, 0, 0}, {0, 1, 0, 0}, {0, 0, 1, 0}, {0, 0, 0, 1}, {0, 2, 0, 0}, {0, 1, 1, 0}, {0, 1, 0, 1}, {0, 0, 2, 0}, {0, 0, 1, 1}, {0, 0, 0, 2}, {0, 3, 0, 0}, {0, 2, 1, 0}, {0, 2, 0, 1}, {0, 1, 2, 0}, {0, 1, 1, 1}, {0, 1, 0, 2}, {0, 0, 3, 0}, {0, 0, 2, 1}, {0, 0, 1, 2}, {0, 0, 0, 3}, {1, 0, 0, 0}, {1, 1, 0, 0}, {1, 0, 1, 0}, {1, 0, 0, 1}, {2, 0, 0, 0}}
alpha_index_times_count = 42
alpha_index_times = {{0, 0, 1, 25}, {1, 1, 1, 26}, {2, 2, 1, 26}, {3, 3, 1, 26}, {1, 4, 1, 27}, {2, 5, 1, 27}, {3, 6, 1, 27}, {1, 5, 1, 28}, {2, 7, 1, 28}, {3, 8, 1, 28}, {1, 6, 1, 29}, {2, 8, 1, 29}, {3, 9, 1, 29}, {4, 4, 1, 30}, {5, 5, 2, 30}, {6, 6, 2, 30}, {7, 7, 1, 30}, {8, 8, 2, 30}, {9, 9, 1, 30}, {10, 10, 1, 31}, {11, 11, 3, 31}, {12, 12, 3, 31}, {13, 13, 3, 31}, {14, 14, 6, 31}, {15, 15, 3, 31}, {16, 16, 1, 31}, {17, 17, 3, 31}, {18, 18, 3, 31}, {19, 19, 1, 31}, {0, 20, 1, 32}, {1, 21, 1, 33}, {2, 22, 1, 33}, {3, 23, 1, 33}, {0, 25, 1, 34}, {0, 26, 1, 35}, {0, 30, 1, 36}, {1, 27, 1, 37}, {2, 28, 1, 37}, {3, 29, 1, 37}, {0, 32, 1, 38}, {0, 34, 1, 39}, {0, 35, 1, 40}}
alpha_scalar_moments = 16
alpha_moment_mapping = {0, 20, 24, 25, 26, 30, 31, 32, 33, 34, 35, 36, 37, 38, 39, 40}
species_coeffs = {-1.371774637764574e+00, -2.782748740788052e+00}
moment_coeffs = {-1.244288108860082e+00, -5.504981377632012e-01, -4.729418921860369e-01, -3.103500038401416e+00, -2.842159420726806e+00, -1.239828298198744e+00, -1.168672822208422e-01, -1.206895819377394e+00, -5.323741303859106e-01, -1.438151554226191e+00, -3.457257888359569e-01, -1.282945138189964e+00, -8.081475063188138e-01, -1.021202842091055e-01, -3.336337766664177e-01, 2.116171844446989e-01}