MTP
version = 1.1.0
potential_name = MTP1m
scaling = 1.796422403897303e-02
species_count = 2
potential_tag = 
radial_basis_type = RBChebyshev
	min_dist = 2.000000000000000e+00
	max_dist = 5.000000000000000e+00
	radial_basis_size = 8
	radial_funcs_count = 3
	radial_coeffs
		0-0
			{-5.413056198848428e-03, -6.483725316174342e-03, -6.012072200508384e-03, -3.088674594194617e-03, -1.553781738469120e-03, -9.139335694916008e-04, -3.885321100214905e-04, -1.071857176360851e-04}
			{-4.822504952460623e-02, -3.807249361938558e-02, -3.426539075572568e-02, -2.002899988608928e-02, -9.200678945602831e-03, -3.720639836617719e-03, -8.563980164956191e-04, -3.638045294618885e-04}
			{-3.484108517956280e-02, -4.041958853887199e-01, -1.961626109302433e-01, -1.359883901745262e-01, -5.665111304710000e-02, -4.141277204989210e-02, -1.925186111396361e-02, -5.379579270561220e-03}
		0-1
			{8.306583489583862e-03, -4.620089244287355e-03, 3.015487480028881e-03, 2.937425755098577e-03, 1.087524941711090e-03, 7.841883192152427e-05, -6.048057686424715e-05, -5.016781347202876e-05}
			{9.462888049148496e-02, 5.958336926678819e-03, 3.390039169301183e-02, 4.198366633704687e-02, 1.062567900109713e-02, 5.690814223129802e-04, -5.565714513125700e-04, -1.256689819147515e-04}
			{-1.232426407085340e-01, -2.185020615443104e-01, 4.967579123656025e-02, -2.668882915684789e-02, 3.995611497920288e-02, -6.175054346979531e-03, -1.316409849883972e-02, 1.330549840146164e-02}
		1-0
			{1.545042316504314e-02, 1.114876186530257e-02, 9.075627899548815e-03, 7.849422150429285e-03, 4.070352712186406e-03, 1.637991987591587e-03, 5.637877895751040e-04, 1.231562171869217e-04}
			{2.165352493525185e-01, 7.267812993781445e-02, 8.847389237973598e-02, 6.889010467178534e-02, 3.116302270141506e-02, 1.418427232105391e-02, 6.241445892489967e-03, 1.612041219634586e-03}
			{-1.905422165861172e-01, 1.357739416329002e-01, -5.060724514052527e-02, -3.687467566783776e-02, -1.243656320720857e-03, -2.750319646412200e-02, 5.242701292511959e-03, -1.927687799019786e-02}
		1-1
			{1.529592277304642e-01, -7.915885180111902e-01, 2.926915357796815e-01, -4.635010251470777e-01, 1.456031364100774e-01, -1.611392051172989e-01, 3.105985744548790e-02, -2.454485621609334e-02}
			{2.379144015298942e-01, 2.673428335690369e-01, 7.871773221639355e-01, 1.976023592371391e-01, 3.319384309916702e-01, 1.233529005581467e-01, 5.075675822562038e-02, 4.280266222183343e-02}
			{6.393484767049877e-01, -1.854983116196384e-01, -1.185255375479626e-01, 3.200401361537481e-01, -2.116061198446922e-01, 1.891653704708224e-01, -6.386488932426682e-02, 3.016798696579805e-02}
alpha_moments_count = 41
alpha_index_basic_count = 25
alpha_index_basic = {{0, 0, 0, 0}, {0, 1, 0, 0}, {0, 0, 1, 0}, {0, 0, 0, 1}, {0, 2, 0, 0}, {0, 1, 1, 0}, {0, 1, 0, 1}, {0, 0, 2, 0}, {0, 0, 1, 1}, {0, 0, 0, 2}, {0, 3, 0, 0}, {0, 2, 1, 0}, {0, 2, 0, 1}, {0, 1, 2, 0}, {0, 1, 1, 1}, {0, 1, 0, 2}, {0, 0, 3, 0}, {0, 0, 2, 1}, {0, 0, 1, 2}, {0, 0, 0, 3}, {1, 0, 0, 0}, {1, 1, 0, 0}, {1, 0, 1, 0}, {1, 0, 0, 1}, {2, 0, 0, 0}}
alpha_index_times_count = 42
alpha_index_times = {{0, 0, 1, 25}, {1, 1, 1, 26}, {2, 2, 1, 26}, {3, 3, 1, 26}, {1, 4, 1, 27}, {2, 5, 1, 27}, {3, 6, 1, 27}, {1, 5, 1, 28}, {2, 7, 1, 28}, {3, 8, 1, 28}, {1, 6, 1, 29}, {2, 8, 1, 29}, {3, 9, 1, 29}, {4, 4, 1, 30}, {5, 5, 2, 30}, {6, 6, 2, 30}, {7, 7, 1, 30}, {8, 8, 2, 30}, {9, 9, 1, 30}, {10, 10, 1, 31}, {11, 11, 3, 31}, {12, 12, 3, 31}, {13, 13, 3, 31}, {14, 14, 6, 31}, {15, 15, 3, 31}, {16, 16, 1, 31}, {17, 17, 3, 31}, {18, 18, 3, 31}, {19, 19, 1, 31}, {0, 20, 1, 32}, {1, 21, 1, 33}, {2, 22, 1, 33}, {3, 23, 1, 33}, {0, 25, 1, 34}, {0, 26, 1, 35}, {0, 30, 1, 36}, {1, 27, 1, 37}, {2, 28, 1, 37}, {3, 29, 1, 37}, {0, 32, 1, 38}, {0, 34, 1, 39}, {0, 35, 1, 40}}
alpha_scalar_moments = 16
alpha_moment_mapping = {0, 20, 24, 25, 26, 30, 31, 32, 33, 34, 35, 36, 37, 38, 39, 40}
species_coeffs = {-1.579210449777507e+00, -3.143439559490041e+00}
moment_coeffs = {-5.811243630380656e+02, -2.051589663148728e+00, 9.117140856283438e+00, -2.655698115194698e+04, 6.254801624835279e+04, 4.599448221660516e+03, 7.398811030411428e+02, 5.352340550378811e+03, -6.238907643397889e+03, 1.520069240168439e+06, 4.301683577031353e+06, 3.924411198895009e+06, -4.992022491333256e+06, -1.377739951540921e+05, -3.225017240289915e+06, -1.753940130285546e+06}