MTP
version = 1.1.0
potential_name = MTP1m
scaling = 7.199098549301836e-02
species_count = 2
potential_tag = 
radial_basis_type = RBChebyshev
	min_dist = 2.000000000000000e+00
	max_dist = 5.000000000000000e+00
	radial_basis_size = 8
	radial_funcs_count = 3
	radial_coeffs
		0-0
			{-1.233114846910300e-03, -1.099760976858997e-03, -1.694681852851230e-03, -8.475146193472199e-04, -3.416408826412394e-04, -1.601403517221620e-04, -7.616598901344723e-05, -2.279067328745603e-05}
			{-1.985352861997628e-02, -6.125136014390137e-03, -1.729904185222331e-02, -7.283720215497351e-03, -5.312122904415350e-03, -4.474214640003205e-03, -2.167507688263967e-03, -5.101977812152832e-04}
			{3.355306951938360e-01, -7.450442202731598e-02, 2.450394067910488e-01, 2.741196628546158e-02, 4.573002876402422e-02, 1.598070991628015e-02, 6.398092554945161e-03, 1.460652441139323e-03}
		0-1
			{2.077362353695388e-03, -2.857547549117113e-03, -1.087372531843000e-03, 2.099500505275307e-04, 1.114697416012338e-04, 1.156586253386797e-05, 5.560036280094823e-05, 2.011380297823267e-05}
			{1.003885912628064e-01, -1.511672502501808e-01, -2.812141403689274e-02, 1.215687817510352e-02, 3.108496435746221e-03, -1.189872619018427e-02, -8.699133498427868e-03, -2.798017165703515e-03}
			{-1.043548181513711e-01, 5.904509196916288e-02, -1.560179336989623e-02, 5.079036083141402e-02, 9.175421090729485e-02, -8.014310410627701e-02, -3.240713997473440e-02, -2.437246768338273e-02}
		1-0
			{2.646417766854967e-03, 9.210668539106770e-04, 7.537224966799146e-04, 8.338636939995894e-04, 4.766047280054106e-04, 1.796501219557110e-04, 5.869923369428886e-05, 1.780880651347112e-05}
			{-3.460021374352768e-02, -7.835698386408237e-02, -3.100089555683714e-02, -1.795583534104719e-02, -5.295880776569353e-03, -4.601587839130204e-03, -1.680678102493546e-03, 1.961219957405152e-04}
			{-2.293821075100969e-01, 7.301902224210277e-01, 2.304776411516468e-01, -1.381962326241810e-01, 7.954039078576941e-02, 4.414278388055061e-02, 2.013731521249359e-02, 1.599970680349871e-02}
		1-1
			{3.416114672500377e-01, -6.726421441322278e-01, 5.085263426542802e-01, -3.567127196206120e-01, 1.896944325775659e-01, -9.044411560639222e-02, 2.765586528131454e-02, -7.253205817657186e-03}
			{-4.735148264971005e-01, -4.724716523757214e-01, -5.660584025902750e-01, -3.018009515256665e-01, -2.783710200951203e-02, -2.855419252968988e-01, 8.869131155404074e-02, -8.520906646770830e-02}
			{2.012685918526000e-01, -8.026847977660460e-02, -2.220839508051423e-01, 7.539722835728210e-02, 3.621546380912029e-02, -1.101291490015562e-01, 3.402511469659269e-02, -3.863799985177541e-02}
alpha_moments_count = 41
alpha_index_basic_count = 25
alpha_index_basic = {{0, 0, 0, 0}, {0, 1, 0, 0}, {0, 0, 1, 0}, {0, 0, 0, 1}, {0, 2, 0, 0}, {0, 1, 1, 0}, {0, 1, 0, 1}, {0, 0, 2, 0}, {0, 0, 1, 1}, {0, 0, 0, 2}, {0, 3, 0, 0}, {0, 2, 1, 0}, {0, 2, 0, 1}, {0, 1, 2, 0}, {0, 1, 1, 1}, {0, 1, 0, 2}, {0, 0, 3, 0}, {0, 0, 2, 1}, {0, 0, 1, 2}, {0, 0, 0, 3}, {1, 0, 0, 0}, {1, 1, 0, 0}, {1, 0, 1, 0}, {1, 0, 0, 1}, {2, 0, 0, 0}}
alpha_index_times_count = 42
alpha_index_times = {{0, 0, 1, 25}, {1, 1, 1, 26}, {2, 2, 1, 26}, {3, 3, 1, 26}, {1, 4, 1, 27}, {2, 5, 1, 27}, {3, 6, 1, 27}, {1, 5, 1, 28}, {2, 7, 1, 28}, {3, 8, 1, 28}, {1, 6, 1, 29}, {2, 8, 1, 29}, {3, 9, 1, 29}, {4, 4, 1, 30}, {5, 5, 2, 30}, {6, 6, 2, 30}, {7, 7, 1, 30}, {8, 8, 2, 30}, {9, 9, 1, 30}, {10, 10, 1, 31}, {11, 11, 3, 31}, {12, 12, 3, 31}, {13, 13, 3, 31}, {14, 14, 6, 31}, {15, 15, 3, 31}, {16, 16, 1, 31}, {17, 17, 3, 31}, {18, 18, 3, 31}, {19, 19, 1, 31}, {0, 20, 1, 32}, {1, 21, 1, 33}, {2, 22, 1, 33}, {3, 23, 1, 33}, {0, 25, 1, 34}, {0, 26, 1, 35}, {0, 30, 1, 36}, {1, 27, 1, 37}, {2, 28, 1, 37}, {3, 29, 1, 37}, {0, 32, 1, 38}, {0, 34, 1, 39}, {0, 35, 1, 40}}
alpha_scalar_moments = 16
alpha_moment_mapping = {0, 20, 24, 25, 26, 30, 31, 32, 33, 34, 35, 36, 37, 38, 39, 40}
species_coeffs = {-1.202856848354504e+00, -3.563569971985953e+00}
moment_coeffs = {9.373658518966569e+01, -1.102632734538786e+01, 1.045945289784298e+00, -9.862043867717471e+04, -4.688364235627939e+04, 2.310427578873839e+04, 3.516715640969925e+03, 3.038410503098459e+03, 1.814439162548605e+03, 7.166973630076022e+06, 2.212134562672864e+05, -3.449612787858711e+03, -5.384226057967381e+06, -1.736397237656330e+05, -2.579521687987995e+06, 1.340255669432147e+06}