MTP
version = 1.1.0
potential_name = MTP1m
scaling = 3.683877743484227e-01
species_count = 2
potential_tag = 
radial_basis_type = RBChebyshev
	min_dist = 2.000000000000000e+00
	max_dist = 5.000000000000000e+00
	radial_basis_size = 8
	radial_funcs_count = 3
	radial_coeffs
		0-0
			{3.239400874006609e-01, 5.154527009731121e-01, 3.760686071739500e-01, 2.733934289346384e-01, 1.670533524245867e-01, 8.955086277817280e-02, 3.355973828187555e-02, 1.220544965088709e-02}
			{7.456487599696861e-02, 1.235764361675796e-01, 8.099088201888634e-02, 4.740805583758241e-02, 1.904299616963349e-02, 9.772477939493934e-03, 2.174574672798412e-03, 8.505819878165703e-04}
			{3.103347928841210e-01, -8.461091198311309e-02, 1.372308071844600e-01, 2.138120417551878e-02, 1.152966914720174e-02, 4.083366934605536e-03, -1.474034820072718e-03, 7.208979771487032e-04}
		0-1
			{-3.247699030492781e-01, -3.617193286545938e-01, -2.487451574101955e-01, -1.365511844077421e-01, -7.707068347587466e-02, -3.915156765262998e-02, -1.470448525051700e-02, -3.523789453742369e-03}
			{4.429877022385195e-02, 3.335839752976793e-02, 2.470094868167726e-02, 9.894189498351851e-03, 8.893490960916781e-03, 4.504347834329620e-03, 1.592697707326883e-03, 5.011242509493288e-04}
			{-1.050723876822073e-01, 6.599608384854365e-02, -1.858183322029369e-02, -8.683990331307091e-02, 3.649161834069996e-02, -7.789620398917831e-02, -1.864071511787561e-02, -4.783190850310870e-02}
		1-0
			{-9.430240932539646e-02, -7.281940163937872e-02, -5.148909479835444e-02, -3.440801315711441e-02, -1.585721543967204e-02, -6.486721893689656e-03, -1.834189588633508e-03, -2.534846176469503e-04}
			{6.984274478639833e-02, 1.631131615805278e-01, 5.073569259191858e-03, 1.941377009729389e-02, 1.437097140872828e-02, -1.055892921126688e-03, -4.699704659635449e-03, -1.985503369159498e-03}
			{1.098094781801414e-01, 2.592630052639793e-01, 2.895831416288088e-01, 1.507231311337948e-01, 5.822932649171271e-02, 8.968117075284736e-02, 3.694694126258753e-02, 4.924987364648997e-02}
		1-1
			{7.202412060933018e-02, 1.469724092831838e-01, 7.321536352299323e-03, 7.296145868302710e-02, 3.384130892139842e-04, 3.043491259208702e-02, 5.716639016753616e-04, 6.369256622680904e-03}
			{2.997941651961371e-01, -6.319457112690401e-01, 5.843556139712368e-01, -1.587498289770689e-01, 2.631620134565927e-01, -7.736622719007998e-02, 4.747739957755234e-02, -2.222438643286635e-02}
			{-7.081804220375296e-02, -4.592266411420019e-01, -4.769671406486360e-01, -2.233136008628860e-01, -3.769774769311899e-01, -2.023227572059743e-02, -8.269781543523851e-02, 8.252138478288361e-03}
alpha_moments_count = 41
alpha_index_basic_count = 25
alpha_index_basic = {{0, 0, 0, 0}, {0, 1, 0, 0}, {0, 0, 1, 0}, {0, 0, 0, 1}, {0, 2, 0, 0}, {0, 1, 1, 0}, {0, 1, 0, 1}, {0, 0, 2, 0}, {0, 0, 1, 1}, {0, 0, 0, 2}, {0, 3, 0, 0}, {0, 2, 1, 0}, {0, 2, 0, 1}, {0, 1, 2, 0}, {0, 1, 1, 1}, {0, 1, 0, 2}, {0, 0, 3, 0}, {0, 0, 2, 1}, {0, 0, 1, 2}, {0, 0, 0, 3}, {1, 0, 0, 0}, {1, 1, 0, 0}, {1, 0, 1, 0}, {1, 0, 0, 1}, {2, 0, 0, 0}}
alpha_index_times_count = 42
alpha_index_times = {{0, 0, 1, 25}, {1, 1, 1, 26}, {2, 2, 1, 26}, {3, 3, 1, 26}, {1, 4, 1, 27}, {2, 5, 1, 27}, {3, 6, 1, 27}, {1, 5, 1, 28}, {2, 7, 1, 28}, {3, 8, 1, 28}, {1, 6, 1, 29}, {2, 8, 1, 29}, {3, 9, 1, 29}, {4, 4, 1, 30}, {5, 5, 2, 30}, {6, 6, 2, 30}, {7, 7, 1, 30}, {8, 8, 2, 30}, {9, 9, 1, 30}, {10, 10, 1, 31}, {11, 11, 3, 31}, {12, 12, 3, 31}, {13, 13, 3, 31}, {14, 14, 6, 31}, {15, 15, 3, 31}, {16, 16, 1, 31}, {17, 17, 3, 31}, {18, 18, 3, 31}, {19, 19, 1, 31}, {0, 20, 1, 32}, {1, 21, 1, 33}, {2, 22, 1, 33}, {3, 23, 1, 33}, {0, 25, 1, 34}, {0, 26, 1, 35}, {0, 30, 1, 36}, {1, 27, 1, 37}, {2, 28, 1, 37}, {3, 29, 1, 37}, {0, 32, 1, 38}, {0, 34, 1, 39}, {0, 35, 1, 40}}
alpha_scalar_moments = 16
alpha_moment_mapping = {0, 20, 24, 25, 26, 30, 31, 32, 33, 34, 35, 36, 37, 38, 39, 40}
species_coeffs = {-2.338457793515570e+00, -2.323518600487283e+00}
moment_coeffs = {3.270027244475973e+00, 6.164261786317548e-01, 3.640833357312351e-01, 3.564330788077305e+00, -2.955609397841141e+00, -1.546133780752607e-01, -1.502460706350062e-01, -3.914005273803948e-01, -1.538339781434999e+00, 1.342386662709023e+00, -6.027070129597313e+00, -1.468361311465613e-01, 5.615477053869515e-01, -1.504150047819157e+00, 2.866842766952594e-01, -3.291933282175450e+00}