MTP
version = 1.1.0
potential_name = MTP1m
scaling = 3.643149312000005e+00
species_count = 2
potential_tag = 
radial_basis_type = RBChebyshev
	min_dist = 2.000000000000000e+00
	max_dist = 5.000000000000000e+00
	radial_basis_size = 8
	radial_funcs_count = 3
	radial_coeffs
		0-0
			{6.148617454044502e-04, 3.497870950141842e-03, 6.490407638195552e-04, 5.139860967277283e-04, 5.178517288702538e-04, 2.964177349438046e-04, 9.733833482643152e-05, 1.349557945873232e-05}
			{1.686434046488987e-03, -3.020474700409303e-02, -6.395158029561925e-03, -4.101563295761999e-03, -4.505960672492378e-03, -2.694678746009510e-03, -8.878171025199701e-04, -1.277779423707024e-04}
			{-7.056555968466724e-04, 3.337692327266026e-02, 3.002307902766848e-02, 1.027760684405830e-03, 9.657224925339830e-03, 5.183929436621875e-03, 1.748738036824377e-03, 2.531330152686496e-04}
		0-1
			{1.111839945474933e-02, -7.976070888238869e-04, 2.049989839359944e-03, 1.994837973534130e-03, 1.387532480266524e-03, 7.344717164224345e-04, 2.350427332098339e-04, 4.332341424992609e-05}
			{-1.297575817953756e-01, -5.683845593488154e-02, -4.457225432059816e-02, -3.551359845531406e-02, -2.236993783214176e-02, -1.220578322415844e-02, -4.456845750972285e-03, -1.047635345210050e-03}
			{3.290816091329077e-01, 3.144430229483323e-01, 1.773846505860989e-01, 9.867774495090229e-02, 6.543630830682354e-02, 2.643858152808888e-02, 1.113243311659254e-02, 1.632737242976409e-03}
		1-0
			{-2.945176825581342e-03, -9.784106313358689e-03, -5.927575510247614e-03, -2.854524367751572e-03, -1.482716017879664e-03, -7.895037223878338e-04, -3.521085692437951e-04, -8.047410734148768e-05}
			{1.717038638832458e-01, 2.798931197212893e-01, 1.837379519165709e-01, 9.894582865806303e-02, 5.579537980655371e-02, 2.933979115741173e-02, 1.257974183101999e-02, 2.749219490625419e-03}
			{-1.860647595305095e-01, -1.403757710906430e-01, -1.245536563910868e-01, -7.402276623788040e-02, -2.473068694036124e-02, -1.300901961453781e-02, -4.492250738343142e-03, -7.344024847007798e-04}
		1-1
			{3.215525643635297e-01, -6.608769190414637e-01, 5.120154861679345e-01, -3.747113694424951e-01, 2.108315670832674e-01, -1.058947870177741e-01, 3.500303601864661e-02, -9.436314654319274e-03}
			{2.692091635818140e-01, -4.698175095531217e-01, -2.824770899188298e-01, 2.700923932422761e-01, -5.209076266828933e-01, 2.736229514532939e-01, -1.624679146739342e-01, 3.074772926855074e-02}
			{4.966074068965320e-01, 2.234793734783440e-01, 3.514215062313018e-01, 3.848323529088243e-01, -1.027937814597151e-01, 2.839511057631819e-01, -7.335205809279792e-02, 5.941606548856145e-02}
alpha_moments_count = 41
alpha_index_basic_count = 25
alpha_index_basic = {{0, 0, 0, 0}, {0, 1, 0, 0}, {0, 0, 1, 0}, {0, 0, 0, 1}, {0, 2, 0, 0}, {0, 1, 1, 0}, {0, 1, 0, 1}, {0, 0, 2, 0}, {0, 0, 1, 1}, {0, 0, 0, 2}, {0, 3, 0, 0}, {0, 2, 1, 0}, {0, 2, 0, 1}, {0, 1, 2, 0}, {0, 1, 1, 1}, {0, 1, 0, 2}, {0, 0, 3, 0}, {0, 0, 2, 1}, {0, 0, 1, 2}, {0, 0, 0, 3}, {1, 0, 0, 0}, {1, 1, 0, 0}, {1, 0, 1, 0}, {1, 0, 0, 1}, {2, 0, 0, 0}}
alpha_index_times_count = 42
alpha_index_times = {{0, 0, 1, 25}, {1, 1, 1, 26}, {2, 2, 1, 26}, {3, 3, 1, 26}, {1, 4, 1, 27}, {2, 5, 1, 27}, {3, 6, 1, 27}, {1, 5, 1, 28}, {2, 7, 1, 28}, {3, 8, 1, 28}, {1, 6, 1, 29}, {2, 8, 1, 29}, {3, 9, 1, 29}, {4, 4, 1, 30}, {5, 5, 2, 30}, {6, 6, 2, 30}, {7, 7, 1, 30}, {8, 8, 2, 30}, {9, 9, 1, 30}, {10, 10, 1, 31}, {11, 11, 3, 31}, {12, 12, 3, 31}, {13, 13, 3, 31}, {14, 14, 6, 31}, {15, 15, 3, 31}, {16, 16, 1, 31}, {17, 17, 3, 31}, {18, 18, 3, 31}, {19, 19, 1, 31}, {0, 20, 1, 32}, {1, 21, 1, 33}, {2, 22, 1, 33}, {3, 23, 1, 33}, {0, 25, 1, 34}, {0, 26, 1, 35}, {0, 30, 1, 36}, {1, 27, 1, 37}, {2, 28, 1, 37}, {3, 29, 1, 37}, {0, 32, 1, 38}, {0, 34, 1, 39}, {0, 35, 1, 40}}
alpha_scalar_moments = 16
alpha_moment_mapping = {0, 20, 24, 25, 26, 30, 31, 32, 33, 34, 35, 36, 37, 38, 39, 40}
species_coeffs = {-9.327074967753209e-01, -5.550486131635496e+00}
moment_coeffs = {-3.165688490630240e+00, 3.864285986010754e-02, 1.567525993988128e-01, 8.381898958967080e-01, 3.972687378194908e+00, 1.757223134425729e+00, 6.570635634139926e-02, 2.151843893218544e-01, 4.792451214805986e-01, 6.892552443600019e+00, 4.512826808208584e+00, -6.587206206470420e-01, 4.891007049680240e-01, 7.159079264697080e-01, -3.424249956944587e-01, -2.113403304832141e+00}