MTP
version = 1.1.0
potential_name = MTP1m
scaling = 4.782675237220697e-01
species_count = 2
potential_tag = 
radial_basis_type = RBChebyshev
	min_dist = 2.000000000000000e+00
	max_dist = 5.000000000000000e+00
	radial_basis_size = 8
	radial_funcs_count = 3
	radial_coeffs
		0-0
			{9.704603342856135e-03, -9.175813963721089e-03, -6.017032767046344e-03, -1.526079976824466e-03, -9.089309740795288e-04, -5.648480455976446e-04, -2.290090931866217e-04, -8.022274886909752e-05}
			{-2.614336629241186e-02, 5.439888601420430e-02, 3.316054332567089e-02, 1.214289607248066e-02, 7.673297077133353e-03, 4.230852293934387e-03, 1.673742197555943e-03, 4.849297129562452e-04}
			{4.916106191159304e-02, -2.202250884616163e-01, 8.600097544565657e-02, -3.568604617858405e-02, 5.625159471011195e-03, -6.581863409796395e-04, 9.766235234948572e-05, -5.583535289097487e-05}
		0-1
			{-5.681353517407903e-02, -1.636681611550555e-02, -1.528200054013246e-02, -1.059444296202046e-02, -6.421421395811192e-03, -1.919587730387813e-03, 2.465479102572337e-04, 1.967225811484092e-04}
			{2.297794518191223e-01, 1.239567838587029e-02, 5.886547655094225e-02, 3.591387390978289e-02, 1.983018603404731e-02, -6.206052872881135e-04, -5.722011308448558e-03, -2.594816821734960e-03}
			{-2.696030967422876e-01, -9.902847667408883e-02, -8.456385542560764e-02, -8.979029213126566e-02, -1.712179777745990e-02, -4.187582213550455e-02, 2.502691215319686e-03, -1.278134503282045e-02}
		1-0
			{-1.901439160270840e-02, -4.053288919423016e-03, -5.495714070677240e-03, -3.815156984420875e-03, -7.373664118305829e-04, 4.954436377492894e-04, 3.726629292995085e-04, 8.466566124426203e-05}
			{2.856856322438865e-01, 5.353894255619852e-01, 2.725278693352233e-01, 1.632147075571320e-01, 1.018208127947471e-01, 4.521886669626281e-02, 1.559739419402813e-02, 3.773243190828095e-03}
			{1.368227323254504e-01, 2.918608433050263e-01, 2.288175633319072e-02, -6.936202061365757e-02, 5.006934680695516e-02, -2.343451866981230e-03, -1.271604353517742e-02, 5.551433623877416e-03}
		1-1
			{1.898791508464245e-01, -7.770664028696480e-01, 2.683418830727052e-01, -4.836128726376191e-01, 1.370190038599136e-01, -1.710938202174447e-01, 3.048441036205119e-02, -2.683464366749509e-02}
			{-3.092548471461652e-01, -2.516704901708328e-01, 2.012068119428797e-01, 4.152335213943327e-01, 2.745628418351243e-01, 2.953389461245840e-02, 8.232402681981625e-02, -1.174121215849260e-02}
			{6.125073002522492e-01, -2.056689034446581e-01, -1.421470657537439e-01, 3.426199451003417e-01, -3.207382131064037e-01, 2.450817695864723e-01, -8.666423425510329e-02, 5.485868145530095e-02}
alpha_moments_count = 41
alpha_index_basic_count = 25
alpha_index_basic = {{0, 0, 0, 0}, {0, 1, 0, 0}, {0, 0, 1, 0}, {0, 0, 0, 1}, {0, 2, 0, 0}, {0, 1, 1, 0}, {0, 1, 0, 1}, {0, 0, 2, 0}, {0, 0, 1, 1}, {0, 0, 0, 2}, {0, 3, 0, 0}, {0, 2, 1, 0}, {0, 2, 0, 1}, {0, 1, 2, 0}, {0, 1, 1, 1}, {0, 1, 0, 2}, {0, 0, 3, 0}, {0, 0, 2, 1}, {0, 0, 1, 2}, {0, 0, 0, 3}, {1, 0, 0, 0}, {1, 1, 0, 0}, {1, 0, 1, 0}, {1, 0, 0, 1}, {2, 0, 0, 0}}
alpha_index_times_count = 42
alpha_index_times = {{0, 0, 1, 25}, {1, 1, 1, 26}, {2, 2, 1, 26}, {3, 3, 1, 26}, {1, 4, 1, 27}, {2, 5, 1, 27}, {3, 6, 1, 27}, {1, 5, 1, 28}, {2, 7, 1, 28}, {3, 8, 1, 28}, {1, 6, 1, 29}, {2, 8, 1, 29}, {3, 9, 1, 29}, {4, 4, 1, 30}, {5, 5, 2, 30}, {6, 6, 2, 30}, {7, 7, 1, 30}, {8, 8, 2, 30}, {9, 9, 1, 30}, {10, 10, 1, 31}, {11, 11, 3, 31}, {12, 12, 3, 31}, {13, 13, 3, 31}, {14, 14, 6, 31}, {15, 15, 3, 31}, {16, 16, 1, 31}, {17, 17, 3, 31}, {18, 18, 3, 31}, {19, 19, 1, 31}, {0, 20, 1, 32}, {1, 21, 1, 33}, {2, 22, 1, 33}, {3, 23, 1, 33}, {0, 25, 1, 34}, {0, 26, 1, 35}, {0, 30, 1, 36}, {1, 27, 1, 37}, {2, 28, 1, 37}, {3, 29, 1, 37}, {0, 32, 1, 38}, {0, 34, 1, 39}, {0, 35, 1, 40}}
alpha_scalar_moments = 16
alpha_moment_mapping = {0, 20, 24, 25, 26, 30, 31, 32, 33, 34, 35, 36, 37, 38, 39, 40}
species_coeffs = {-1.295902139905153e+00, -6.620394034788109e+00}
moment_coeffs = {-8.172421691611067e-01, -2.619767964727315e-01, 2.267456907290286e-01, -1.270173883228603e+01, -1.174213643694434e+01, -8.611670113777656e-01, -9.722164349087949e-01, -2.464417017853309e+00, -1.634143985058755e+00, -1.377020671547750e+01, -3.317007551729724e+00, -3.777669779689626e+00, -1.575076642841647e+01, -3.867949498923684e+00, 5.815705563232131e+00, 1.974006632929519e+01}