MTP
version = 1.1.0
potential_name = MTP1m
scaling = 5.900497410806775e-02
species_count = 2
potential_tag = 
radial_basis_type = RBChebyshev
	min_dist = 2.000000000000000e+00
	max_dist = 5.000000000000000e+00
	radial_basis_size = 8
	radial_funcs_count = 3
	radial_coeffs
		0-0
			{4.862721766787773e-02, -1.268789784087112e-01, -8.575813544788352e-02, -3.387893975896159e-02, -1.653050401277778e-02, -8.959042988902693e-03, -3.568387324623915e-03, -8.775521422233961e-04}
			{9.662318653612906e-02, -1.397267153692511e-01, -9.508496552734649e-02, -3.352318976910539e-02, -1.520874467796909e-02, -8.892077382563640e-03, -3.484551897907779e-03, -8.993571880698940e-04}
			{-9.949453828393771e-03, 5.291139551203914e-02, 1.035592583306313e-01, 2.227946522171078e-02, 1.717828268563587e-02, 7.755633064906369e-03, 3.344305027647205e-03, 8.307513355384845e-04}
		0-1
			{-3.575962750744577e-01, 4.592497252749567e-02, 1.886502058721027e-02, -1.325949239903375e-02, -1.051694729262881e-02, 4.544256076479469e-03, 5.351217351924086e-03, 2.691001496951744e-03}
			{-5.070931839623437e-01, 2.185918920096890e-02, -9.962904867419803e-03, -3.331766968274207e-02, -2.484902319080920e-02, -2.258996817948331e-03, 3.192233525160713e-03, 2.448650995443144e-03}
			{3.890289779079247e-01, 4.200962491635495e-01, 2.799505202625410e-01, 1.867661471147984e-01, 1.261131001277022e-01, 3.308486319712255e-02, 8.358787661185033e-03, -2.519680099350901e-03}
		1-0
			{-1.222073533802163e-01, 1.231484248377437e-02, -7.505828093479716e-02, -5.817169098193228e-02, -3.052594195424974e-02, -2.480862955309792e-02, -1.151337465930821e-02, -2.835553784969013e-03}
			{-1.852095707516500e-01, -4.020398280666382e-01, -3.456813795102369e-01, -2.405725899091779e-01, -1.517117408859953e-01, -9.117988765026741e-02, -3.451153511487610e-02, -7.430618563364993e-03}
			{-7.007387506193005e-02, -4.327620471382035e-01, -3.032852408109435e-01, -1.972548053710394e-01, -1.055557173361261e-01, -4.581662344603228e-02, -1.360788189382719e-02, -1.437716945466969e-03}
		1-1
			{-1.067537950080532e-01, -8.071013386700499e-01, -2.508981970830299e-01, -2.764469932358281e-01, -7.186356280025837e-02, -9.196440148546459e-02, -1.532577531544201e-02, -1.242736978793836e-02}
			{-1.443837491630108e-02, 2.936861298731921e-01, -1.963268093514356e-01, 3.414113515575538e-01, -1.788923187494294e-01, 1.339387072607256e-01, -4.663226434710330e-02, 4.017817713418451e-02}
			{2.651203069896069e-01, -2.243272387417596e-01, 2.579812330221884e-01, -3.434035054034967e-02, 4.942694293899454e-02, 5.491583627346977e-03, 5.010789506123250e-03, 1.801802474111869e-03}
alpha_moments_count = 41
alpha_index_basic_count = 25
alpha_index_basic = {{0, 0, 0, 0}, {0, 1, 0, 0}, {0, 0, 1, 0}, {0, 0, 0, 1}, {0, 2, 0, 0}, {0, 1, 1, 0}, {0, 1, 0, 1}, {0, 0, 2, 0}, {0, 0, 1, 1}, {0, 0, 0, 2}, {0, 3, 0, 0}, {0, 2, 1, 0}, {0, 2, 0, 1}, {0, 1, 2, 0}, {0, 1, 1, 1}, {0, 1, 0, 2}, {0, 0, 3, 0}, {0, 0, 2, 1}, {0, 0, 1, 2}, {0, 0, 0, 3}, {1, 0, 0, 0}, {1, 1, 0, 0}, {1, 0, 1, 0}, {1, 0, 0, 1}, {2, 0, 0, 0}}
alpha_index_times_count = 42
alpha_index_times = {{0, 0, 1, 25}, {1, 1, 1, 26}, {2, 2, 1, 26}, {3, 3, 1, 26}, {1, 4, 1, 27}, {2, 5, 1, 27}, {3, 6, 1, 27}, {1, 5, 1, 28}, {2, 7, 1, 28}, {3, 8, 1, 28}, {1, 6, 1, 29}, {2, 8, 1, 29}, {3, 9, 1, 29}, {4, 4, 1, 30}, {5, 5, 2, 30}, {6, 6, 2, 30}, {7, 7, 1, 30}, {8, 8, 2, 30}, {9, 9, 1, 30}, {10, 10, 1, 31}, {11, 11, 3, 31}, {12, 12, 3, 31}, {13, 13, 3, 31}, {14, 14, 6, 31}, {15, 15, 3, 31}, {16, 16, 1, 31}, {17, 17, 3, 31}, {18, 18, 3, 31}, {19, 19, 1, 31}, {0, 20, 1, 32}, {1, 21, 1, 33}, {2, 22, 1, 33}, {3, 23, 1, 33}, {0, 25, 1, 34}, {0, 26, 1, 35}, {0, 30, 1, 36}, {1, 27, 1, 37}, {2, 28, 1, 37}, {3, 29, 1, 37}, {0, 32, 1, 38}, {0, 34, 1, 39}, {0, 35, 1, 40}}
alpha_scalar_moments = 16
alpha_moment_mapping = {0, 20, 24, 25, 26, 30, 31, 32, 33, 34, 35, 36, 37, 38, 39, 40}
species_coeffs = {-1.370342950160449e+00, -3.998325701478910e+00}
moment_coeffs = {1.022238947096912e+01, -3.795051908454797e+00, 6.791685776172429e+00, 2.110090384328681e+01, -1.289327603472907e+01, -2.060595795899881e+00, 4.869680469884332e-02, -1.670771643808856e+01, 4.510389062176727e+00, 1.430461056550529e+01, 5.736900613370672e-01, -4.510312835196272e+00, -1.381764684497789e+01, -7.228027506156908e+00, 3.331673680918538e+00, 1.098006502312688e+01}